<?xml version="1.0" encoding="UTF-8"?>
<!-- This network was created in GeNIe Academic, which can be used for academic teaching and research purposes only -->
<smile version="1.0" id="semantic_consistency_matrix_coco_discretised" numsamples="10000" discsamples="10000">
	<nodes>
		<cpt id="train">
			<state id="Confident" />
			<state id="SVery_Confident" />
			<state id="SVery_Weak_Confidence" />
			<state id="SWeak_Confidence" />
			<probabilities>0.3076923076923077 0.5824175824175825 0.02197802197802198 0.08791208791208792</probabilities>
		</cpt>
		<cpt id="car">
			<state id="Confident" />
			<state id="SVery_Confident" />
			<state id="SVery_Weak_Confidence" />
			<state id="SWeak_Confidence" />
			<parents>train</parents>
			<probabilities>0.4224137931034483 0.5603448275862069 0.008620689655172414 0.008620689655172414 0.02314814814814815 0.9675925925925926 0.004629629629629629 0.004629629629629629 0.08333333333333333 0.08333333333333333 0.75 0.08333333333333333 0.02777777777777778 0.25 0.02777777777777778 0.6944444444444444</probabilities>
		</cpt>
		<cpt id="person">
			<state id="Confident" />
			<state id="SVery_Confident" />
			<state id="SWeak_Confidence" />
			<parents>car</parents>
			<probabilities>0.5238095238095237 0.4523809523809523 0.02380952380952381 0.03286384976525823 0.9624413145539907 0.004694835680751174 0.1111111111111111 0.1111111111111111 0.7777777777777778 0.619047619047619 0.04761904761904762 0.3333333333333333</probabilities>
		</cpt>
		<cpt id="motorcycle">
			<state id="Confident" />
			<state id="SVery_Confident" />
			<state id="SVery_Weak_Confidence" />
			<state id="SWeak_Confidence" />
			<parents>train</parents>
			<probabilities>0.008620689655172414 0.008620689655172414 0.1120689655172414 0.8706896551724138 0.375 0.5601851851851851 0.004629629629629629 0.06018518518518518 0.08333333333333333 0.08333333333333333 0.75 0.08333333333333333 0.02777777777777778 0.02777777777777778 0.8055555555555555 0.1388888888888889</probabilities>
		</cpt>
		<cpt id="bicycle">
			<state id="Confident" />
			<state id="SVery_Confident" />
			<state id="SVery_Weak_Confidence" />
			<state id="SWeak_Confidence" />
			<parents>motorcycle</parents>
			<probabilities>0.5833333333333333 0.3928571428571428 0.0119047619047619 0.0119047619047619 0.07258064516129031 0.9112903225806451 0.008064516129032258 0.008064516129032258 0.01923076923076923 0.01923076923076923 0.6346153846153847 0.3269230769230769 0.4416666666666667 0.008333333333333333 0.04166666666666666 0.5083333333333333</probabilities>
		</cpt>
		<cpt id="airplane">
			<state id="Confident" />
			<state id="SVery_Confident" />
			<state id="SVery_Weak_Confidence" />
			<state id="SWeak_Confidence" />
			<parents>bicycle</parents>
			<probabilities>0.6517857142857143 0.2946428571428572 0.008928571428571428 0.04464285714285714 0.08783783783783784 0.8986486486486487 0.006756756756756757 0.006756756756756757 0.125 0.025 0.7250000000000001 0.125 0.2105263157894737 0.05263157894736842 0.05263157894736842 0.6842105263157894</probabilities>
		</cpt>
		<cpt id="bus">
			<state id="Confident" />
			<state id="SVery_Confident" />
			<state id="SVery_Weak_Confidence" />
			<state id="SWeak_Confidence" />
			<parents>bicycle</parents>
			<probabilities>0.6160714285714285 0.3660714285714285 0.008928571428571428 0.008928571428571428 0.03378378378378379 0.9527027027027027 0.006756756756756757 0.006756756756756757 0.025 0.025 0.325 0.625 0.5625 0.0625 0.0125 0.3625</probabilities>
		</cpt>
		<cpt id="truck">
			<state id="Confident" />
			<state id="SVery_Confident" />
			<state id="SVery_Weak_Confidence" />
			<state id="SWeak_Confidence" />
			<parents>car motorcycle</parents>
			<probabilities>0.25 0.25 0.25 0.25 0.25 0.25 0.25 0.25 0.3125 0.0625 0.0625 0.5625 0.1136363636363636 0.02272727272727273 0.02272727272727273 0.8409090909090909 0.4404761904761905 0.5357142857142857 0.0119047619047619 0.0119047619047619 0.04032258064516129 0.9435483870967741 0.008064516129032258 0.008064516129032258 0.125 0.125 0.125 0.625 0.7125 0.0625 0.0125 0.2125 0.25 0.25 0.25 0.25 0.25 0.25 0.25 0.25 0.08333333333333333 0.08333333333333333 0.75 0.08333333333333333 0.25 0.25 0.25 0.25 0.25 0.25 0.25 0.25 0.25 0.25 0.25 0.25 0.1785714285714285 0.03571428571428571 0.6071428571428571 0.1785714285714285 0.25 0.25 0.25 0.25</probabilities>
		</cpt>
		<cpt id="boat">
			<state id="Confident" />
			<state id="SVery_Confident" />
			<state id="SVery_Weak_Confidence" />
			<state id="SWeak_Confidence" />
			<parents>train</parents>
			<probabilities>0.5603448275862069 0.2844827586206897 0.008620689655172414 0.146551724137931 0.004629629629629629 0.986111111111111 0.004629629629629629 0.004629629629629629 0.08333333333333333 0.08333333333333333 0.75 0.08333333333333333 0.125 0.125 0.125 0.625</probabilities>
		</cpt>
		<cpt id="bird">
			<state id="Confident" />
			<state id="SVery_Confident" />
			<state id="SVery_Weak_Confidence" />
			<state id="SWeak_Confidence" />
			<parents>bus</parents>
			<probabilities>0.375 0.6083333333333333 0.008333333333333333 0.008333333333333333 0.02659574468085106 0.9627659574468085 0.005319148936170213 0.005319148936170213 0.0625 0.0625 0.5625 0.3125 0.375 0.01785714285714286 0.01785714285714286 0.5892857142857143</probabilities>
		</cpt>
		<cpt id="bear">
			<state id="Confident" />
			<state id="SVery_Confident" />
			<state id="SVery_Weak_Confidence" />
			<state id="SWeak_Confidence" />
			<parents>bird</parents>
			<probabilities>0.7916666666666666 0.01388888888888889 0.01388888888888889 0.1805555555555556 0.14453125 0.83203125 0.00390625 0.01953125 0.08333333333333333 0.4166666666666666 0.4166666666666666 0.08333333333333333 0.125 0.025 0.125 0.7250000000000001</probabilities>
		</cpt>
		<cpt id="refrigerator">
			<state id="Confident" />
			<state id="Very_Confident" />
			<state id="Very_Weak_Confidence" />
			<state id="Weak_Confidence" />
			<parents>bear</parents>
			<probabilities>0.37 0.21 0.01 0.41 0.05909090909090909 0.9136363636363636 0.004545454545454545 0.02272727272727273 0.4166666666666666 0.08333333333333333 0.4166666666666666 0.08333333333333333 0.2727272727272727 0.09090909090909091 0.3636363636363636 0.2727272727272727</probabilities>
		</cpt>
		<cpt id="sandwich">
			<state id="Confident" />
			<state id="SVery_Confident" />
			<state id="SVery_Weak_Confidence" />
			<state id="SWeak_Confidence" />
			<parents>refrigerator</parents>
			<probabilities>0.3125 0.0625 0.0625 0.5625 0.2850877192982456 0.706140350877193 0.004385964912280702 0.004385964912280702 0.04166666666666666 0.04166666666666666 0.7083333333333333 0.2083333333333333 0.15 0.01666666666666667 0.2833333333333333 0.55</probabilities>
		</cpt>
		<cpt id="cake">
			<state id="Confident" />
			<state id="SVery_Confident" />
			<state id="SVery_Weak_Confidence" />
			<state id="SWeak_Confidence" />
			<parents>sandwich</parents>
			<probabilities>0.6354166666666666 0.1770833333333333 0.01041666666666667 0.1770833333333333 0.125 0.8392857142857142 0.005952380952380952 0.02976190476190476 0.025 0.025 0.625 0.325 0.1710526315789473 0.0131578947368421 0.1184210526315789 0.6973684210526315</probabilities>
		</cpt>
		<cpt id="sink">
			<state id="Confident" />
			<state id="Very_Confident" />
			<state id="Very_Weak_Confidence" />
			<state id="Weak_Confidence" />
			<parents>refrigerator</parents>
			<probabilities>0.6617647058823529 0.07352941176470588 0.01470588235294118 0.25 0.1447368421052632 0.8114035087719298 0.004385964912280702 0.03947368421052631 0.04166666666666666 0.04166666666666666 0.7083333333333333 0.2083333333333333 0.35 0.01666666666666667 0.15 0.4833333333333333</probabilities>
		</cpt>
		<cpt id="knife">
			<state id="Confident" />
			<state id="SVery_Confident" />
			<state id="SVery_Weak_Confidence" />
			<state id="SWeak_Confidence" />
			<parents>cake sink</parents>
			<probabilities>0.28125 0.53125 0.03125 0.15625 0.7321428571428571 0.2321428571428571 0.01785714285714286 0.01785714285714286 0.25 0.25 0.25 0.25 0.5625 0.0625 0.0625 0.3125 0.8500000000000001 0.05 0.05 0.05 0.03571428571428571 0.95 0.007142857142857143 0.007142857142857143 0.25 0.25 0.25 0.25 0.125 0.125 0.125 0.625 0.25 0.25 0.25 0.25 0.25 0.25 0.25 0.25 0.03571428571428571 0.03571428571428571 0.4642857142857142 0.4642857142857142 0.08333333333333333 0.08333333333333333 0.75 0.08333333333333333 0.1607142857142857 0.01785714285714286 0.08928571428571427 0.7321428571428571 0.25 0.25 0.25 0.25 0.25 0.25 0.25 0.25 0.1388888888888889 0.1388888888888889 0.02777777777777778 0.6944444444444444</probabilities>
		</cpt>
		<cpt id="scissors">
			<state id="Confident" />
			<state id="SVery_Confident" />
			<state id="SVery_Weak_Confidence" />
			<state id="SWeak_Confidence" />
			<parents>knife</parents>
			<probabilities>0.4021739130434783 0.05434782608695652 0.0108695652173913 0.5326086956521739 0.4821428571428571 0.4821428571428571 0.005952380952380952 0.02976190476190476 0.03571428571428571 0.03571428571428571 0.8928571428571428 0.03571428571428571 0.05434782608695652 0.0108695652173913 0.5760869565217391 0.358695652173913</probabilities>
		</cpt>
		<cpt id="dining_table">
			<state id="Confident" />
			<state id="SVery_Confident" />
			<state id="SVery_Weak_Confidence" />
			<state id="SWeak_Confidence" />
			<parents>scissors</parents>
			<probabilities>0.5241935483870968 0.04032258064516129 0.008064516129032258 0.4274193548387097 0.1931818181818182 0.6022727272727273 0.01136363636363636 0.1931818181818182 0.0125 0.0125 0.9625 0.0125 0.1428571428571428 0.04761904761904762 0.4761904761904762 0.3333333333333333</probabilities>
		</cpt>
		<cpt id="surfboard">
			<state id="Confident" />
			<state id="SVery_Confident" />
			<state id="SVery_Weak_Confidence" />
			<state id="SWeak_Confidence" />
			<parents>dining_table</parents>
			<probabilities>0.4782608695652174 0.2608695652173913 0.04347826086956522 0.2173913043478261 0.140625 0.765625 0.015625 0.078125 0.03448275862068965 0.06896551724137931 0.7931034482758621 0.103448275862069 0.2083333333333333 0.04166666666666666 0.04166666666666666 0.7083333333333333</probabilities>
		</cpt>
		<cpt id="kite">
			<state id="Confident" />
			<state id="SVery_Confident" />
			<state id="SVery_Weak_Confidence" />
			<state id="SWeak_Confidence" />
			<parents>surfboard</parents>
			<probabilities>0.4210526315789473 0.2631578947368421 0.1578947368421053 0.1578947368421053 0.04761904761904762 0.8095238095238095 0.04761904761904762 0.09523809523809523 0.04807692307692308 0.009615384615384616 0.7788461538461539 0.1634615384615385 0.1944444444444444 0.009259259259259259 0.1203703703703704 0.6759259259259259</probabilities>
		</cpt>
		<cpt id="snowboard">
			<state id="Confident" />
			<state id="SVery_Confident" />
			<state id="SVery_Weak_Confidence" />
			<state id="SWeak_Confidence" />
			<parents>kite</parents>
			<probabilities>0.4 0.06666666666666667 0.06666666666666667 0.4666666666666667 0.09782608695652173 0.7934782608695652 0.0108695652173913 0.09782608695652173 0.08035714285714285 0.008928571428571428 0.7589285714285714 0.1517857142857143 0.1851851851851852 0.03703703703703703 0.1111111111111111 0.6666666666666666</probabilities>
		</cpt>
		<cpt id="baseball_bat">
			<state id="Confident" />
			<state id="SVery_Confident" />
			<state id="SVery_Weak_Confidence" />
			<state id="SWeak_Confidence" />
			<parents>snowboard</parents>
			<probabilities>0.4 0.1333333333333333 0.06666666666666667 0.4 0.3 0.6000000000000001 0.05 0.05 0.04807692307692308 0.009615384615384616 0.8557692307692308 0.08653846153846154 0.09677419354838709 0.03225806451612903 0.1290322580645161 0.7419354838709677</probabilities>
		</cpt>
		<cpt id="frisbee">
			<state id="Confident" />
			<state id="SVery_Confident" />
			<state id="SVery_Weak_Confidence" />
			<state id="SWeak_Confidence" />
			<parents>baseball_bat</parents>
			<probabilities>0.5625 0.25 0.0625 0.125 0.1333333333333333 0.7333333333333333 0.06666666666666667 0.06666666666666667 0.03571428571428571 0.03571428571428571 0.8214285714285714 0.1071428571428571 0.3712121212121212 0.007575757575757576 0.09848484848484848 0.5227272727272727</probabilities>
		</cpt>
		<cpt id="traffic_light">
			<state id="Confident" />
			<state id="SVery_Confident" />
			<state id="SVery_Weak_Confidence" />
			<state id="SWeak_Confidence" />
			<parents>frisbee</parents>
			<probabilities>0.53 0.09 0.01 0.37 0.01470588235294118 0.7794117647058824 0.07352941176470588 0.1323529411764706 0.07142857142857142 0.03571428571428571 0.7857142857142857 0.1071428571428571 0.2608695652173913 0.04347826086956522 0.08695652173913043 0.6086956521739131</probabilities>
		</cpt>
		<cpt id="tv">
			<state id="Confident" />
			<state id="Very_Confident" />
			<state id="Very_Weak_Confidence" />
			<state id="Weak_Confidence" />
			<parents>motorcycle bird</parents>
			<probabilities>0.125 0.125 0.125 0.625 0.6125 0.3625 0.0125 0.0125 0.25 0.25 0.25 0.25 0.25 0.25 0.25 0.25 0.25 0.25 0.25 0.25 0.1693548387096774 0.814516129032258 0.008064516129032258 0.008064516129032258 0.25 0.25 0.25 0.25 0.25 0.25 0.25 0.25 0.0625 0.0625 0.0625 0.8125 0.25 0.25 0.25 0.25 0.08333333333333333 0.08333333333333333 0.75 0.08333333333333333 0.03125 0.03125 0.90625 0.03125 0.01785714285714286 0.08928571428571427 0.01785714285714286 0.875 0.35 0.01666666666666667 0.01666666666666667 0.6166666666666667 0.25 0.25 0.25 0.25 0.08333333333333333 0.08333333333333333 0.75 0.08333333333333333</probabilities>
		</cpt>
		<cpt id="sheep">
			<state id="Confident" />
			<state id="SVery_Confident" />
			<state id="SVery_Weak_Confidence" />
			<state id="SWeak_Confidence" />
			<parents>tv</parents>
			<probabilities>0.6630434782608695 0.2717391304347826 0.0108695652173913 0.05434782608695652 0.2426470588235294 0.7426470588235294 0.007352941176470588 0.007352941176470588 0.02083333333333333 0.02083333333333333 0.6875 0.2708333333333333 0.1634615384615385 0.04807692307692308 0.009615384615384616 0.7788461538461539</probabilities>
		</cpt>
		<cpt id="zebra">
			<state id="Confident" />
			<state id="SVery_Confident" />
			<state id="SVery_Weak_Confidence" />
			<state id="SWeak_Confidence" />
			<parents>sheep</parents>
			<probabilities>0.1111111111111111 0.03703703703703703 0.1851851851851852 0.6666666666666666 0.28125 0.5 0.03125 0.1875 0.02777777777777778 0.02777777777777778 0.9166666666666666 0.02777777777777778 0.05 0.05 0.89 0.01</probabilities>
		</cpt>
		<cpt id="giraffe">
			<state id="Confident" />
			<state id="SVery_Confident" />
			<state id="SVery_Weak_Confidence" />
			<state id="SWeak_Confidence" />
			<parents>zebra</parents>
			<probabilities>0.5384615384615385 0.07692307692307693 0.1538461538461539 0.2307692307692308 0.1184210526315789 0.75 0.0131578947368421 0.1184210526315789 0.006756756756756757 0.006756756756756757 0.9527027027027027 0.03378378378378379 0.04166666666666666 0.08333333333333333 0.1666666666666667 0.7083333333333333</probabilities>
		</cpt>
		<cpt id="toothbrush">
			<state id="Confident" />
			<state id="SVery_Confident" />
			<state id="SVery_Weak_Confidence" />
			<state id="SWeak_Confidence" />
			<parents>giraffe</parents>
			<probabilities>0.3863636363636364 0.02272727272727273 0.02272727272727273 0.5681818181818182 0.1176470588235294 0.6470588235294118 0.05882352941176471 0.1764705882352941 0.005952380952380952 0.02976190476190476 0.863095238095238 0.1011904761904762 0.04347826086956522 0.04347826086956522 0.2608695652173913 0.6521739130434783</probabilities>
		</cpt>
		<cpt id="skis">
			<state id="Confident" />
			<state id="SVery_Confident" />
			<state id="SVery_Weak_Confidence" />
			<state id="SWeak_Confidence" />
			<parents>toothbrush</parents>
			<probabilities>0.53125 0.03125 0.03125 0.40625 0.01785714285714286 0.8035714285714285 0.1607142857142857 0.01785714285714286 0.005681818181818182 0.02840909090909091 0.8465909090909091 0.1193181818181818 0.008620689655172414 0.04310344827586207 0.4913793103448276 0.4568965517241379</probabilities>
		</cpt>
		<cpt id="fire_hydrant">
			<state id="Confident" />
			<state id="SVery_Confident" />
			<state id="SVery_Weak_Confidence" />
			<state id="SWeak_Confidence" />
			<parents>skis</parents>
			<probabilities>0.05 0.05 0.05 0.8500000000000001 0.01785714285714286 0.8035714285714285 0.08928571428571427 0.08928571428571427 0.004629629629629629 0.02314814814814815 0.912037037037037 0.06018518518518518 0.05681818181818182 0.01136363636363636 0.6022727272727273 0.3295454545454545</probabilities>
		</cpt>
		<cpt id="stop_sign">
			<state id="Confident" />
			<state id="SVery_Confident" />
			<state id="SVery_Weak_Confidence" />
			<state id="SWeak_Confidence" />
			<parents>fire_hydrant</parents>
			<probabilities>0.125 0.125 0.125 0.625 0.01923076923076923 0.8653846153846154 0.09615384615384616 0.01923076923076923 0.03174603174603174 0.01587301587301587 0.8571428571428571 0.09523809523809523 0.2666666666666667 0.06666666666666667 0.3333333333333333 0.3333333333333333</probabilities>
		</cpt>
		<cpt id="umbrella">
			<state id="Confident" />
			<state id="SVery_Confident" />
			<state id="SVery_Weak_Confidence" />
			<state id="SWeak_Confidence" />
			<parents>traffic_light</parents>
			<probabilities>0.4761904761904762 0.2380952380952381 0.04761904761904762 0.2380952380952381 0.06944444444444445 0.8472222222222222 0.01388888888888889 0.06944444444444445 0.009615384615384616 0.009615384615384616 0.7788461538461539 0.2019230769230769 0.3214285714285714 0.07142857142857142 0.07142857142857142 0.5357142857142857</probabilities>
		</cpt>
		<cpt id="parking_meter">
			<state id="Confident" />
			<state id="SVery_Confident" />
			<state id="SVery_Weak_Confidence" />
			<state id="SWeak_Confidence" />
			<parents>umbrella tv</parents>
			<probabilities>0.02777777777777778 0.02777777777777778 0.02777777777777778 0.9166666666666666 0.7884615384615385 0.09615384615384616 0.01923076923076923 0.09615384615384616 0.25 0.25 0.25 0.25 0.25 0.25 0.25 0.25 0.45 0.05 0.05 0.45 0.1805555555555556 0.7916666666666666 0.01388888888888889 0.01388888888888889 0.25 0.25 0.25 0.25 0.125 0.125 0.625 0.125 0.25 0.25 0.25 0.25 0.25 0.25 0.25 0.25 0.02083333333333333 0.02083333333333333 0.9375 0.02083333333333333 0.01923076923076923 0.09615384615384616 0.8653846153846154 0.01923076923076923 0.2045454545454546 0.02272727272727273 0.1136363636363636 0.6590909090909091 0.05 0.05 0.05 0.8500000000000001 0.25 0.25 0.25 0.25 0.01923076923076923 0.01923076923076923 0.5576923076923077 0.4038461538461539</probabilities>
		</cpt>
		<cpt id="bench">
			<state id="Confident" />
			<state id="SVery_Confident" />
			<state id="SVery_Weak_Confidence" />
			<state id="SWeak_Confidence" />
			<parents>tv</parents>
			<probabilities>0.5760869565217391 0.3152173913043478 0.0108695652173913 0.09782608695652173 0.1544117647058824 0.8308823529411764 0.007352941176470588 0.007352941176470588 0.1875 0.02083333333333333 0.6875 0.1041666666666667 0.1634615384615385 0.009615384615384616 0.009615384615384616 0.8173076923076924</probabilities>
		</cpt>
		<cpt id="backpack">
			<state id="Confident" />
			<state id="SVery_Confident" />
			<state id="SVery_Weak_Confidence" />
			<state id="SWeak_Confidence" />
			<parents>train</parents>
			<probabilities>0.4285714285714285 0.1428571428571428 0.03571428571428571 0.3928571428571428 0.1157407407407407 0.875 0.004629629629629629 0.004629629629629629 0.08333333333333333 0.08333333333333333 0.75 0.08333333333333333 0.1388888888888889 0.02777777777777778 0.1388888888888889 0.6944444444444444</probabilities>
		</cpt>
		<cpt id="horse">
			<state id="Confident" />
			<state id="SVery_Confident" />
			<state id="SVery_Weak_Confidence" />
			<state id="SWeak_Confidence" />
			<parents>bear</parents>
			<probabilities>0.65 0.29 0.01 0.05 0.04090909090909091 0.9318181818181818 0.02272727272727273 0.004545454545454545 0.08333333333333333 0.08333333333333333 0.4166666666666666 0.4166666666666666 0.1875 0.02083333333333333 0.02083333333333333 0.7708333333333333</probabilities>
		</cpt>
		<cpt id="bed">
			<state id="Confident" />
			<state id="SVery_Confident" />
			<state id="SVery_Weak_Confidence" />
			<state id="SWeak_Confidence" />
			<parents>train horse</parents>
			<probabilities>0.765625 0.203125 0.015625 0.015625 0.425 0.525 0.025 0.025 0.25 0.25 0.25 0.25 0.45 0.25 0.05 0.25 0.8500000000000001 0.05 0.05 0.05 0.005 0.985 0.005 0.005 0.25 0.25 0.25 0.25 0.25 0.25 0.25 0.25 0.25 0.25 0.25 0.25 0.25 0.25 0.25 0.25 0.625 0.125 0.125 0.125 0.125 0.125 0.625 0.125 0.125 0.125 0.125 0.625 0.25 0.25 0.25 0.25 0.125 0.125 0.125 0.625 0.3214285714285714 0.03571428571428571 0.03571428571428571 0.6071428571428571</probabilities>
		</cpt>
		<cpt id="dog">
			<state id="Confident" />
			<state id="SVery_Confident" />
			<state id="SVery_Weak_Confidence" />
			<state id="SWeak_Confidence" />
			<parents>backpack bed</parents>
			<probabilities>0.4722222222222222 0.3611111111111111 0.02777777777777778 0.1388888888888889 0.6590909090909091 0.2954545454545455 0.02272727272727273 0.02272727272727273 0.25 0.25 0.25 0.25 0.125 0.125 0.125 0.625 0.8500000000000001 0.05 0.05 0.05 0.02604166666666666 0.9635416666666666 0.005208333333333333 0.005208333333333333 0.25 0.25 0.25 0.25 0.25 0.25 0.25 0.25 0.08333333333333333 0.08333333333333333 0.4166666666666666 0.4166666666666666 0.25 0.25 0.25 0.25 0.125 0.125 0.625 0.125 0.125 0.125 0.125 0.625 0.3541666666666666 0.02083333333333333 0.02083333333333333 0.6041666666666666 0.625 0.125 0.125 0.125 0.25 0.25 0.25 0.25 0.375 0.04166666666666666 0.2083333333333333 0.375</probabilities>
		</cpt>
		<cpt id="cat">
			<state id="Confident" />
			<state id="SVery_Confident" />
			<state id="SVery_Weak_Confidence" />
			<state id="SWeak_Confidence" />
			<parents>dog</parents>
			<probabilities>0.4270833333333333 0.1354166666666667 0.01041666666666667 0.4270833333333333 0.3443396226415094 0.6462264150943396 0.004716981132075472 0.004716981132075472 0.0625 0.0625 0.8125 0.0625 0.1607142857142857 0.01785714285714286 0.2321428571428571 0.5892857142857143</probabilities>
		</cpt>
		<cpt id="cow">
			<state id="Confident" />
			<state id="SVery_Confident" />
			<state id="SVery_Weak_Confidence" />
			<state id="SWeak_Confidence" />
			<parents>sheep</parents>
			<probabilities>0.6160714285714285 0.3303571428571428 0.008928571428571428 0.04464285714285714 0.03787878787878788 0.946969696969697 0.007575757575757576 0.007575757575757576 0.02777777777777778 0.02777777777777778 0.6944444444444444 0.25 0.1666666666666667 0.08333333333333333 0.04166666666666666 0.7083333333333333</probabilities>
		</cpt>
		<cpt id="elephant">
			<state id="Confident" />
			<state id="SVery_Confident" />
			<state id="SVery_Weak_Confidence" />
			<state id="SWeak_Confidence" />
			<parents>sheep</parents>
			<probabilities>0.4017857142857142 0.04464285714285714 0.008928571428571428 0.5446428571428571 0.2803030303030303 0.6439393939393939 0.007575757575757576 0.06818181818181818 0.02777777777777778 0.02777777777777778 0.9166666666666666 0.02777777777777778 0.05 0.01 0.45 0.49</probabilities>
		</cpt>
		<cpt id="handbag">
			<state id="Confident" />
			<state id="SVery_Confident" />
			<state id="SVery_Weak_Confidence" />
			<state id="SWeak_Confidence" />
			<parents>parking_meter</parents>
			<probabilities>0.6805555555555555 0.1805555555555556 0.01388888888888889 0.125 0.07352941176470588 0.8382352941176471 0.01470588235294118 0.07352941176470588 0.0078125 0.0078125 0.7265625 0.2578125 0.2592592592592592 0.1481481481481481 0.1111111111111111 0.4814814814814815</probabilities>
		</cpt>
		<cpt id="tie">
			<state id="Confident" />
			<state id="SVery_Confident" />
			<state id="SVery_Weak_Confidence" />
			<state id="SWeak_Confidence" />
			<parents>train</parents>
			<probabilities>0.6637931034482758 0.07758620689655173 0.008620689655172414 0.25 0.1527777777777778 0.8379629629629629 0.004629629629629629 0.004629629629629629 0.08333333333333333 0.08333333333333333 0.75 0.08333333333333333 0.3611111111111111 0.02777777777777778 0.3611111111111111 0.25</probabilities>
		</cpt>
		<cpt id="remote">
			<state id="Confident" />
			<state id="SVery_Confident" />
			<state id="SVery_Weak_Confidence" />
			<state id="SWeak_Confidence" />
			<parents>tv</parents>
			<probabilities>0.7065217391304348 0.2717391304347826 0.0108695652173913 0.0108695652173913 0.1544117647058824 0.8014705882352942 0.007352941176470588 0.03676470588235294 0.02083333333333333 0.02083333333333333 0.7708333333333333 0.1875 0.2788461538461539 0.04807692307692308 0.009615384615384616 0.6634615384615385</probabilities>
		</cpt>
		<cpt id="keyboard">
			<state id="Confident" />
			<state id="SVery_Confident" />
			<state id="SVery_Weak_Confidence" />
			<state id="SWeak_Confidence" />
			<parents>remote</parents>
			<probabilities>0.6293103448275862 0.353448275862069 0.008620689655172414 0.008620689655172414 0.09285714285714286 0.8642857142857142 0.007142857142857143 0.03571428571428571 0.025 0.025 0.625 0.325 0.4404761904761905 0.0119047619047619 0.0119047619047619 0.5357142857142857</probabilities>
		</cpt>
		<cpt id="suitcase">
			<state id="Confident" />
			<state id="SVery_Confident" />
			<state id="SVery_Weak_Confidence" />
			<state id="SWeak_Confidence" />
			<parents>airplane keyboard</parents>
			<probabilities>0.6029411764705882 0.25 0.01470588235294118 0.1323529411764706 0.5833333333333333 0.3611111111111111 0.02777777777777778 0.02777777777777778 0.25 0.25 0.25 0.25 0.4166666666666666 0.4166666666666666 0.08333333333333333 0.08333333333333333 0.625 0.325 0.025 0.025 0.007575757575757576 0.9772727272727273 0.007575757575757576 0.007575757575757576 0.25 0.25 0.25 0.25 0.125 0.125 0.125 0.625 0.25 0.25 0.25 0.25 0.25 0.25 0.25 0.25 0.03571428571428571 0.03571428571428571 0.8928571428571428 0.03571428571428571 0.4166666666666666 0.08333333333333333 0.4166666666666666 0.08333333333333333 0.2083333333333333 0.04166666666666666 0.04166666666666666 0.7083333333333333 0.25 0.25 0.25 0.25 0.25 0.25 0.25 0.25 0.02272727272727273 0.02272727272727273 0.1136363636363636 0.8409090909090909</probabilities>
		</cpt>
		<cpt id="sports_ball">
			<state id="Confident" />
			<state id="SVery_Confident" />
			<state id="SVery_Weak_Confidence" />
			<state id="SWeak_Confidence" />
			<parents>toothbrush</parents>
			<probabilities>0.78125 0.03125 0.03125 0.15625 0.01785714285714286 0.8035714285714285 0.08928571428571427 0.08928571428571427 0.02325581395348837 0.02325581395348837 0.7441860465116279 0.2093023255813953 0.2844827586206897 0.008620689655172414 0.1120689655172414 0.5948275862068966</probabilities>
		</cpt>
		<cpt id="baseball_glove">
			<state id="Confident" />
			<state id="SVery_Confident" />
			<state id="SVery_Weak_Confidence" />
			<state id="SWeak_Confidence" />
			<parents>sports_ball</parents>
			<probabilities>0.328125 0.015625 0.140625 0.515625 0.01923076923076923 0.8653846153846154 0.01923076923076923 0.09615384615384616 0.006756756756756757 0.006756756756756757 0.9256756756756758 0.06081081081081081 0.03571428571428571 0.03571428571428571 0.4642857142857142 0.4642857142857142</probabilities>
		</cpt>
		<cpt id="skateboard">
			<state id="Confident" />
			<state id="SVery_Confident" />
			<state id="SVery_Weak_Confidence" />
			<state id="SWeak_Confidence" />
			<parents>snowboard</parents>
			<probabilities>0.578125 0.390625 0.015625 0.015625 0.1547619047619048 0.7738095238095237 0.0119047619047619 0.05952380952380952 0.009615384615384616 0.04807692307692308 0.6634615384615385 0.2788461538461539 0.4140625 0.0078125 0.0390625 0.5390625</probabilities>
		</cpt>
		<cpt id="tennis_racket">
			<state id="Confident" />
			<state id="SVery_Confident" />
			<state id="SVery_Weak_Confidence" />
			<state id="SWeak_Confidence" />
			<parents>sports_ball</parents>
			<probabilities>0.140625 0.015625 0.140625 0.703125 0.01923076923076923 0.8653846153846154 0.09615384615384616 0.01923076923076923 0.02777777777777778 0.02777777777777778 0.9166666666666666 0.02777777777777778 0.07758620689655173 0.008620689655172414 0.5948275862068966 0.3189655172413793</probabilities>
		</cpt>
		<cpt id="bottle">
			<state id="Confident" />
			<state id="SVery_Confident" />
			<state id="SVery_Weak_Confidence" />
			<state id="SWeak_Confidence" />
			<parents>sheep</parents>
			<probabilities>0.5803571428571428 0.3660714285714285 0.008928571428571428 0.04464285714285714 0.06818181818181818 0.9166666666666667 0.007575757575757576 0.007575757575757576 0.25 0.02777777777777778 0.6944444444444444 0.02777777777777778 0.3333333333333333 0.08333333333333333 0.04166666666666666 0.5416666666666666</probabilities>
		</cpt>
		<cpt id="hair_dryer">
			<state id="Confident" />
			<state id="SVery_Confident" />
			<state id="SVery_Weak_Confidence" />
			<state id="SWeak_Confidence" />
			<parents>fire_hydrant</parents>
			<probabilities>0.125 0.125 0.625 0.125 0.01923076923076923 0.8653846153846154 0.09615384615384616 0.01923076923076923 0.05078125 0.01953125 0.92578125 0.00390625 0.015625 0.015625 0.453125 0.515625</probabilities>
		</cpt>
		<cpt id="teddy_bear">
			<state id="Confident" />
			<state id="Very_Confident" />
			<state id="Very_Weak_Confidence" />
			<state id="Weak_Confidence" />
			<parents>hair_dryer</parents>
			<probabilities>0.0625 0.0625 0.5625 0.3125 0.01923076923076923 0.8653846153846154 0.09615384615384616 0.01923076923076923 0.003623188405797101 0.03260869565217391 0.9601449275362319 0.003623188405797101 0.1388888888888889 0.02777777777777778 0.6944444444444444 0.1388888888888889</probabilities>
		</cpt>
		<cpt id="broccoli">
			<state id="Confident" />
			<state id="SVery_Confident" />
			<state id="SVery_Weak_Confidence" />
			<state id="SWeak_Confidence" />
			<parents>teddy_bear</parents>
			<probabilities>0.125 0.125 0.625 0.125 0.01785714285714286 0.8035714285714285 0.08928571428571427 0.08928571428571427 0.01333333333333333 0.01333333333333333 0.8533333333333334 0.12 0.08333333333333333 0.08333333333333333 0.4166666666666666 0.4166666666666666</probabilities>
		</cpt>
		<cpt id="carrot">
			<state id="Confident" />
			<state id="SVery_Confident" />
			<state id="SVery_Weak_Confidence" />
			<state id="SWeak_Confidence" />
			<parents>parking_meter broccoli</parents>
			<probabilities>0.25 0.25 0.25 0.25 0.25 0.25 0.25 0.25 0.2166666666666667 0.01666666666666667 0.01666666666666667 0.75 0.5625 0.3125 0.0625 0.0625 0.25 0.25 0.25 0.25 0.02083333333333333 0.9375 0.02083333333333333 0.02083333333333333 0.3125 0.0625 0.3125 0.3125 0.4166666666666666 0.4166666666666666 0.08333333333333333 0.08333333333333333 0.125 0.625 0.125 0.125 0.625 0.125 0.125 0.125 0.008928571428571428 0.008928571428571428 0.9375 0.04464285714285714 0.08333333333333333 0.08333333333333333 0.4166666666666666 0.4166666666666666 0.25 0.25 0.25 0.25 0.25 0.25 0.25 0.25 0.1304347826086956 0.04347826086956522 0.1304347826086956 0.6956521739130435 0.25 0.05 0.05 0.65</probabilities>
		</cpt>
		<cpt id="wine_glass">
			<state id="Confident" />
			<state id="SVery_Confident" />
			<state id="SVery_Weak_Confidence" />
			<state id="SWeak_Confidence" />
			<parents>carrot</parents>
			<probabilities>0.3269230769230769 0.01923076923076923 0.09615384615384616 0.5576923076923077 0.06666666666666667 0.7333333333333333 0.06666666666666667 0.1333333333333333 0.0078125 0.0390625 0.9453125 0.0078125 0.1515151515151515 0.09090909090909091 0.2121212121212121 0.5454545454545454</probabilities>
		</cpt>
		<cpt id="cup">
			<state id="Confident" />
			<state id="SVery_Confident" />
			<state id="SVery_Weak_Confidence" />
			<state id="SWeak_Confidence" />
			<parents>sink</parents>
			<probabilities>0.53 0.17 0.01 0.29 0.2135416666666667 0.7760416666666666 0.005208333333333333 0.005208333333333333 0.03571428571428571 0.03571428571428571 0.75 0.1785714285714285 0.2166666666666667 0.08333333333333333 0.01666666666666667 0.6833333333333333</probabilities>
		</cpt>
		<cpt id="fork">
			<state id="Confident" />
			<state id="SVery_Confident" />
			<state id="SVery_Weak_Confidence" />
			<state id="SWeak_Confidence" />
			<parents>knife</parents>
			<probabilities>0.75 0.05434782608695652 0.0108695652173913 0.1847826086956522 0.244047619047619 0.7202380952380952 0.005952380952380952 0.02976190476190476 0.03571428571428571 0.03571428571428571 0.75 0.1785714285714285 0.1363636363636364 0.04545454545454546 0.2272727272727273 0.5909090909090909</probabilities>
		</cpt>
		<cpt id="bowl">
			<state id="Confident" />
			<state id="SVery_Confident" />
			<state id="SVery_Weak_Confidence" />
			<state id="SWeak_Confidence" />
			<parents>cake</parents>
			<probabilities>0.6354166666666666 0.3020833333333333 0.01041666666666667 0.05208333333333333 0.13125 0.80625 0.00625 0.05625 0.02777777777777778 0.02777777777777778 0.6944444444444444 0.25 0.4659090909090909 0.01136363636363636 0.05681818181818182 0.4659090909090909</probabilities>
		</cpt>
		<cpt id="spoon">
			<state id="Confident" />
			<state id="SVery_Confident" />
			<state id="SVery_Weak_Confidence" />
			<state id="SWeak_Confidence" />
			<parents>bowl</parents>
			<probabilities>0.3666666666666666 0.03333333333333333 0.03333333333333333 0.5666666666666667 0.25625 0.68125 0.00625 0.05625 0.03125 0.03125 0.78125 0.15625 0.078125 0.015625 0.453125 0.453125</probabilities>
		</cpt>
		<cpt id="banana">
			<state id="Confident" />
			<state id="SVery_Confident" />
			<state id="SVery_Weak_Confidence" />
			<state id="SWeak_Confidence" />
			<parents>carrot</parents>
			<probabilities>0.5833333333333333 0.25 0.08333333333333333 0.08333333333333333 0.078125 0.828125 0.015625 0.078125 0.0390625 0.0078125 0.6328125 0.3203125 0.3636363636363636 0.0303030303030303 0.0303030303030303 0.5757575757575758</probabilities>
		</cpt>
		<cpt id="apple">
			<state id="Confident" />
			<state id="SVery_Confident" />
			<state id="SVery_Weak_Confidence" />
			<state id="SWeak_Confidence" />
			<parents>banana</parents>
			<probabilities>0.5113636363636364 0.4659090909090909 0.01136363636363636 0.01136363636363636 0.06944444444444445 0.9027777777777777 0.01388888888888889 0.01388888888888889 0.09782608695652173 0.0108695652173913 0.4021739130434783 0.4891304347826087 0.6328125 0.0703125 0.0078125 0.2890625</probabilities>
		</cpt>
		<cpt id="orange">
			<state id="Confident" />
			<state id="SVery_Confident" />
			<state id="SVery_Weak_Confidence" />
			<state id="SWeak_Confidence" />
			<parents>banana</parents>
			<probabilities>0.5113636363636364 0.4659090909090909 0.01136363636363636 0.01136363636363636 0.01388888888888889 0.9583333333333333 0.01388888888888889 0.01388888888888889 0.05434782608695652 0.0108695652173913 0.4456521739130435 0.4891304347826087 0.6640625 0.1015625 0.0078125 0.2265625</probabilities>
		</cpt>
		<cpt id="toaster">
			<state id="Confident" />
			<state id="SVery_Confident" />
			<state id="SVery_Weak_Confidence" />
			<state id="SWeak_Confidence" />
			<parents>cake</parents>
			<probabilities>0.1770833333333333 0.01041666666666667 0.1354166666666667 0.6770833333333333 0.15625 0.50625 0.00625 0.33125 0.02777777777777778 0.02777777777777778 0.9166666666666666 0.02777777777777778 0.01136363636363636 0.01136363636363636 0.9204545454545455 0.05681818181818182</probabilities>
		</cpt>
		<cpt id="hot_dog">
			<state id="Confident" />
			<state id="SVery_Confident" />
			<state id="SVery_Weak_Confidence" />
			<state id="SWeak_Confidence" />
			<parents>toaster</parents>
			<probabilities>0.4 0.1 0.1 0.4 0.1071428571428571 0.7738095238095237 0.0119047619047619 0.1071428571428571 0.0078125 0.0703125 0.7890625 0.1328125 0.2333333333333333 0.03333333333333333 0.06666666666666667 0.6666666666666666</probabilities>
		</cpt>
		<cpt id="oven">
			<state id="Confident" />
			<state id="SVery_Confident" />
			<state id="SVery_Weak_Confidence" />
			<state id="SWeak_Confidence" />
			<parents>cake</parents>
			<probabilities>0.59375 0.2604166666666666 0.01041666666666667 0.1354166666666667 0.15625 0.80625 0.00625 0.03125 0.02777777777777778 0.02777777777777778 0.8055555555555555 0.1388888888888889 0.2380952380952381 0.04761904761904762 0.04761904761904762 0.6666666666666666</probabilities>
		</cpt>
		<cpt id="pizza">
			<state id="Confident" />
			<state id="SVery_Confident" />
			<state id="SVery_Weak_Confidence" />
			<state id="SWeak_Confidence" />
			<parents>oven</parents>
			<probabilities>0.5600000000000001 0.04 0.04 0.36 0.20625 0.7562500000000001 0.00625 0.03125 0.02777777777777778 0.02777777777777778 0.8055555555555555 0.1388888888888889 0.0625 0.0125 0.3125 0.6125</probabilities>
		</cpt>
		<cpt id="donut">
			<state id="Confident" />
			<state id="SVery_Confident" />
			<state id="SVery_Weak_Confidence" />
			<state id="SWeak_Confidence" />
			<parents>traffic_light</parents>
			<probabilities>0.6022727272727273 0.01136363636363636 0.1477272727272727 0.2386363636363636 0.05882352941176471 0.8235294117647058 0.05882352941176471 0.05882352941176471 0.009615384615384616 0.04807692307692308 0.7788461538461539 0.1634615384615385 0.25 0.1071428571428571 0.1071428571428571 0.5357142857142857</probabilities>
		</cpt>
		<cpt id="chair">
			<state id="Confident" />
			<state id="SVery_Confident" />
			<state id="SVery_Weak_Confidence" />
			<state id="SWeak_Confidence" />
			<parents>bicycle</parents>
			<probabilities>0.4732142857142857 0.4375 0.008928571428571428 0.08035714285714285 0.03378378378378379 0.9527027027027027 0.006756756756756757 0.006756756756756757 0.025 0.025 0.625 0.325 0.1125 0.2125 0.0125 0.6625000000000001</probabilities>
		</cpt>
		<cpt id="couch">
			<state id="Confident" />
			<state id="SVery_Confident" />
			<state id="SVery_Weak_Confidence" />
			<state id="SWeak_Confidence" />
			<parents>elephant</parents>
			<probabilities>0.7142857142857142 0.1904761904761905 0.04761904761904762 0.04761904761904762 0.1847826086956522 0.75 0.0108695652173913 0.05434782608695652 0.0625 0.0125 0.8125 0.1125 0.1724137931034483 0.103448275862069 0.1724137931034483 0.5517241379310345</probabilities>
		</cpt>
		<cpt id="potted_plant">
			<state id="Confident" />
			<state id="SVery_Confident" />
			<state id="SVery_Weak_Confidence" />
			<state id="SWeak_Confidence" />
			<parents>hair_dryer</parents>
			<probabilities>0.0625 0.3125 0.0625 0.5625 0.01923076923076923 0.8653846153846154 0.09615384615384616 0.01923076923076923 0.04411764705882353 0.01470588235294118 0.7794117647058824 0.1617647058823529 0.3611111111111111 0.02777777777777778 0.02777777777777778 0.5833333333333333</probabilities>
		</cpt>
		<cpt id="toilet">
			<state id="Confident" />
			<state id="SVery_Confident" />
			<state id="SVery_Weak_Confidence" />
			<state id="SWeak_Confidence" />
			<parents>bus</parents>
			<probabilities>0.575 0.1083333333333333 0.008333333333333333 0.3083333333333333 0.1542553191489362 0.8351063829787234 0.005319148936170213 0.005319148936170213 0.3125 0.0625 0.5625 0.0625 0.01785714285714286 0.08928571428571427 0.08928571428571427 0.8035714285714285</probabilities>
		</cpt>
		<cpt id="laptop">
			<state id="Confident" />
			<state id="SVery_Confident" />
			<state id="SVery_Weak_Confidence" />
			<state id="SWeak_Confidence" />
			<parents>keyboard</parents>
			<probabilities>0.2333333333333333 0.03333333333333333 0.1 0.6333333333333333 0.3963414634146342 0.5670731707317074 0.006097560975609756 0.03048780487804878 0.03571428571428571 0.03571428571428571 0.8928571428571428 0.03571428571428571 0.015625 0.015625 0.640625 0.328125</probabilities>
		</cpt>
		<cpt id="mouse">
			<state id="Confident" />
			<state id="SVery_Confident" />
			<state id="SVery_Weak_Confidence" />
			<state id="SWeak_Confidence" />
			<parents>tv</parents>
			<probabilities>0.6195652173913043 0.358695652173913 0.0108695652173913 0.0108695652173913 0.1544117647058824 0.8308823529411764 0.007352941176470588 0.007352941176470588 0.1041666666666667 0.02083333333333333 0.6041666666666666 0.2708333333333333 0.2788461538461539 0.04807692307692308 0.009615384615384616 0.6634615384615385</probabilities>
		</cpt>
		<cpt id="cell_phone">
			<state id="Confident" />
			<state id="SVery_Confident" />
			<state id="SVery_Weak_Confidence" />
			<state id="SWeak_Confidence" />
			<parents>keyboard</parents>
			<probabilities>0.3306451612903226 0.008064516129032258 0.1370967741935484 0.5241935483870968 0.3475609756097561 0.6158536585365854 0.006097560975609756 0.03048780487804878 0.03571428571428571 0.03571428571428571 0.8928571428571428 0.03571428571428571 0.015625 0.015625 0.578125 0.390625</probabilities>
		</cpt>
		<cpt id="microwave">
			<state id="Confident" />
			<state id="SVery_Confident" />
			<state id="SVery_Weak_Confidence" />
			<state id="SWeak_Confidence" />
			<parents>toaster</parents>
			<probabilities>0.5681818181818182 0.1136363636363636 0.02272727272727273 0.2954545454545455 0.2976190476190476 0.6309523809523809 0.0119047619047619 0.05952380952380952 0.0703125 0.0078125 0.7890625 0.1328125 0.07258064516129031 0.008064516129032258 0.1693548387096774 0.75</probabilities>
		</cpt>
		<cpt id="book">
			<state id="Confident" />
			<state id="SVery_Confident" />
			<state id="SVery_Weak_Confidence" />
			<state id="SWeak_Confidence" />
			<parents>car suitcase</parents>
			<probabilities>0.125 0.625 0.125 0.125 0.125 0.125 0.125 0.625 0.125 0.125 0.125 0.625 0.8409090909090909 0.1136363636363636 0.02272727272727273 0.02272727272727273 0.09782608695652173 0.8804347826086957 0.0108695652173913 0.0108695652173913 0.005813953488372093 0.9825581395348837 0.005813953488372093 0.005813953488372093 0.625 0.125 0.125 0.125 0.7083333333333333 0.2083333333333333 0.04166666666666666 0.04166666666666666 0.25 0.25 0.25 0.25 0.25 0.25 0.25 0.25 0.08333333333333333 0.08333333333333333 0.4166666666666666 0.4166666666666666 0.25 0.25 0.25 0.25 0.625 0.125 0.125 0.125 0.25 0.25 0.25 0.25 0.25 0.05 0.05 0.65 0.125 0.125 0.125 0.625</probabilities>
		</cpt>
		<cpt id="clock">
			<state id="Confident" />
			<state id="SVery_Confident" />
			<state id="SVery_Weak_Confidence" />
			<state id="SWeak_Confidence" />
			<parents>motorcycle book</parents>
			<probabilities>0.25 0.25 0.25 0.25 0.3928571428571428 0.5833333333333333 0.0119047619047619 0.0119047619047619 0.25 0.25 0.25 0.25 0.25 0.25 0.25 0.25 0.25 0.25 0.25 0.25 0.008064516129032258 0.9758064516129032 0.008064516129032258 0.008064516129032258 0.25 0.25 0.25 0.25 0.25 0.25 0.25 0.25 0.4642857142857142 0.03571428571428571 0.3214285714285714 0.1785714285714285 0.25 0.25 0.25 0.25 0.125 0.125 0.625 0.125 0.04166666666666666 0.04166666666666666 0.375 0.5416666666666666 0.4807692307692308 0.01923076923076923 0.01923076923076923 0.4807692307692308 0.890625 0.078125 0.015625 0.015625 0.25 0.25 0.25 0.25 0.08333333333333333 0.08333333333333333 0.08333333333333333 0.75</probabilities>
		</cpt>
		<cpt id="vase">
			<state id="Confident" />
			<state id="SVery_Confident" />
			<state id="SVery_Weak_Confidence" />
			<state id="SWeak_Confidence" />
			<parents>wine_glass</parents>
			<probabilities>0.4772727272727273 0.2954545454545455 0.02272727272727273 0.2045454545454546 0.140625 0.828125 0.015625 0.015625 0.03125 0.00625 0.58125 0.38125 0.4444444444444444 0.07407407407407407 0.03703703703703703 0.4444444444444444</probabilities>
		</cpt>
	</nodes>
	<extensions>
		<genie version="1.0" app="GeNIe 4.1.4109.0 ACADEMIC" name="semantic_consistency_matrix_coco_discretised">
			<node id="person">
				<name>person</name>
				<interior color="e5f6f7" />
				<outline color="000080" />
				<font color="000000" name="Arial" size="8" />
				<position>227 138 299 186</position>
				<barchart width="128" height="72" />
			</node>
			<node id="bicycle">
				<name>bicycle</name>
				<interior color="e5f6f7" />
				<outline color="000080" />
				<font color="000000" name="Arial" size="8" />
				<position>227 200 299 248</position>
				<barchart width="128" height="90" />
			</node>
			<node id="car">
				<name>car</name>
				<interior color="e5f6f7" />
				<outline color="000080" />
				<font color="000000" name="Arial" size="8" />
				<position>134 138 206 186</position>
				<barchart width="128" height="90" />
			</node>
			<node id="motorcycle">
				<name>motorcycle</name>
				<interior color="e5f6f7" />
				<outline color="000080" />
				<font color="000000" name="Arial" size="8" />
				<position>134 200 206 248</position>
				<barchart width="128" height="90" />
			</node>
			<node id="airplane">
				<name>airplane</name>
				<interior color="e5f6f7" />
				<outline color="000080" />
				<font color="000000" name="Arial" size="8" />
				<position>320 138 392 186</position>
				<barchart width="128" height="90" />
			</node>
			<node id="bus">
				<name>bus</name>
				<interior color="e5f6f7" />
				<outline color="000080" />
				<font color="000000" name="Arial" size="8" />
				<position>320 200 392 248</position>
				<barchart width="128" height="90" />
			</node>
			<node id="train">
				<name>train</name>
				<interior color="e5f6f7" />
				<outline color="000080" />
				<font color="000000" name="Arial" size="8" />
				<position>41 138 113 186</position>
				<barchart width="128" height="90" />
			</node>
			<node id="truck">
				<name>truck</name>
				<interior color="e5f6f7" />
				<outline color="000080" />
				<font color="000000" name="Arial" size="8" />
				<position>227 262 299 310</position>
				<barchart width="128" height="90" />
			</node>
			<node id="boat">
				<name>boat</name>
				<interior color="e5f6f7" />
				<outline color="000080" />
				<font color="000000" name="Arial" size="8" />
				<position>134 262 206 310</position>
				<barchart width="128" height="90" />
			</node>
			<node id="traffic_light">
				<name>traffic_light</name>
				<interior color="e5f6f7" />
				<outline color="000080" />
				<font color="000000" name="Arial" size="8" />
				<position>1622 138 1694 186</position>
				<barchart width="128" height="90" />
			</node>
			<node id="fire_hydrant">
				<name>fire_hydrant</name>
				<interior color="e5f6f7" />
				<outline color="000080" />
				<font color="000000" name="Arial" size="8" />
				<position>1064 138 1136 186</position>
				<barchart width="128" height="90" />
			</node>
			<node id="stop_sign">
				<name>stop_sign</name>
				<interior color="e5f6f7" />
				<outline color="000080" />
				<font color="000000" name="Arial" size="8" />
				<position>1157 138 1229 186</position>
				<barchart width="128" height="90" />
			</node>
			<node id="parking_meter">
				<name>parking_meter</name>
				<interior color="e5f6f7" />
				<outline color="000080" />
				<font color="000000" name="Arial" size="8" />
				<position>1808 138 1880 186</position>
				<barchart width="128" height="90" />
			</node>
			<node id="bench">
				<name>bench</name>
				<interior color="e5f6f7" />
				<outline color="000080" />
				<font color="000000" name="Arial" size="8" />
				<position>599 138 671 186</position>
				<barchart width="128" height="90" />
			</node>
			<node id="bird">
				<name>bird</name>
				<interior color="e5f6f7" />
				<outline color="000080" />
				<font color="000000" name="Arial" size="8" />
				<position>413 138 485 186</position>
				<barchart width="128" height="90" />
			</node>
			<node id="cat">
				<name>cat</name>
				<interior color="e5f6f7" />
				<outline color="000080" />
				<font color="000000" name="Arial" size="8" />
				<position>878 138 950 186</position>
				<barchart width="128" height="90" />
			</node>
			<node id="dog">
				<name>dog</name>
				<interior color="e5f6f7" />
				<outline color="000080" />
				<font color="000000" name="Arial" size="8" />
				<position>785 138 857 186</position>
				<barchart width="128" height="90" />
			</node>
			<node id="horse">
				<name>horse</name>
				<interior color="e5f6f7" />
				<outline color="000080" />
				<font color="000000" name="Arial" size="8" />
				<position>599 200 671 248</position>
				<barchart width="128" height="90" />
			</node>
			<node id="sheep">
				<name>sheep</name>
				<interior color="e5f6f7" />
				<outline color="000080" />
				<font color="000000" name="Arial" size="8" />
				<position>599 262 671 310</position>
				<barchart width="128" height="90" />
			</node>
			<node id="cow">
				<name>cow</name>
				<interior color="e5f6f7" />
				<outline color="000080" />
				<font color="000000" name="Arial" size="8" />
				<position>692 138 764 186</position>
				<barchart width="128" height="90" />
			</node>
			<node id="elephant">
				<name>elephant</name>
				<interior color="e5f6f7" />
				<outline color="000080" />
				<font color="000000" name="Arial" size="8" />
				<position>692 200 764 248</position>
				<barchart width="128" height="90" />
			</node>
			<node id="bear">
				<name>bear</name>
				<interior color="e5f6f7" />
				<outline color="000080" />
				<font color="000000" name="Arial" size="8" />
				<position>506 138 578 186</position>
				<barchart width="128" height="90" />
			</node>
			<node id="zebra">
				<name>zebra</name>
				<interior color="e5f6f7" />
				<outline color="000080" />
				<font color="000000" name="Arial" size="8" />
				<position>692 262 764 310</position>
				<barchart width="128" height="90" />
			</node>
			<node id="giraffe">
				<name>giraffe</name>
				<interior color="e5f6f7" />
				<outline color="000080" />
				<font color="000000" name="Arial" size="8" />
				<position>785 200 857 248</position>
				<barchart width="128" height="90" />
			</node>
			<node id="backpack">
				<name>backpack</name>
				<interior color="e5f6f7" />
				<outline color="000080" />
				<font color="000000" name="Arial" size="8" />
				<position>134 324 206 372</position>
				<barchart width="128" height="90" />
			</node>
			<node id="umbrella">
				<name>umbrella</name>
				<interior color="e5f6f7" />
				<outline color="000080" />
				<font color="000000" name="Arial" size="8" />
				<position>1715 138 1787 186</position>
				<barchart width="128" height="90" />
			</node>
			<node id="handbag">
				<name>handbag</name>
				<interior color="e5f6f7" />
				<outline color="000080" />
				<font color="000000" name="Arial" size="8" />
				<position>1901 138 1973 186</position>
				<barchart width="128" height="90" />
			</node>
			<node id="tie">
				<name>tie</name>
				<interior color="e5f6f7" />
				<outline color="000080" />
				<font color="000000" name="Arial" size="8" />
				<position>134 386 206 434</position>
				<barchart width="128" height="90" />
			</node>
			<node id="suitcase">
				<name>suitcase</name>
				<interior color="e5f6f7" />
				<outline color="000080" />
				<font color="000000" name="Arial" size="8" />
				<position>785 262 857 310</position>
				<barchart width="128" height="90" />
			</node>
			<node id="frisbee">
				<name>frisbee</name>
				<interior color="e5f6f7" />
				<outline color="000080" />
				<font color="000000" name="Arial" size="8" />
				<position>1529 138 1601 186</position>
				<barchart width="128" height="90" />
			</node>
			<node id="skis">
				<name>skis</name>
				<interior color="e5f6f7" />
				<outline color="000080" />
				<font color="000000" name="Arial" size="8" />
				<position>971 138 1043 186</position>
				<barchart width="128" height="90" />
			</node>
			<node id="snowboard">
				<name>snowboard</name>
				<interior color="e5f6f7" />
				<outline color="000080" />
				<font color="000000" name="Arial" size="8" />
				<position>1343 138 1415 186</position>
				<barchart width="128" height="90" />
			</node>
			<node id="sports_ball">
				<name>sports_ball</name>
				<interior color="e5f6f7" />
				<outline color="000080" />
				<font color="000000" name="Arial" size="8" />
				<position>971 200 1043 248</position>
				<barchart width="128" height="90" />
			</node>
			<node id="kite">
				<name>kite</name>
				<interior color="e5f6f7" />
				<outline color="000080" />
				<font color="000000" name="Arial" size="8" />
				<position>1250 138 1322 186</position>
				<barchart width="128" height="90" />
			</node>
			<node id="baseball_bat">
				<name>baseball_bat</name>
				<interior color="e5f6f7" />
				<outline color="000080" />
				<font color="000000" name="Arial" size="8" />
				<position>1436 138 1508 186</position>
				<barchart width="128" height="90" />
			</node>
			<node id="baseball_glove">
				<name>baseball_glove</name>
				<interior color="e5f6f7" />
				<outline color="000080" />
				<font color="000000" name="Arial" size="8" />
				<position>1132 53 1204 101</position>
				<barchart active="true" width="128" height="90" />
			</node>
			<node id="skateboard">
				<name>skateboard</name>
				<interior color="e5f6f7" />
				<outline color="000080" />
				<font color="000000" name="Arial" size="8" />
				<position>1436 200 1508 248</position>
				<barchart width="128" height="90" />
			</node>
			<node id="surfboard">
				<name>surfboard</name>
				<interior color="e5f6f7" />
				<outline color="000080" />
				<font color="000000" name="Arial" size="8" />
				<position>1157 200 1229 248</position>
				<barchart width="128" height="90" />
			</node>
			<node id="tennis_racket">
				<name>tennis_racket</name>
				<interior color="e5f6f7" />
				<outline color="000080" />
				<font color="000000" name="Arial" size="8" />
				<position>1064 262 1136 310</position>
				<barchart width="128" height="90" />
			</node>
			<node id="bottle">
				<name>bottle</name>
				<interior color="e5f6f7" />
				<outline color="000080" />
				<font color="000000" name="Arial" size="8" />
				<position>692 324 764 372</position>
				<barchart width="128" height="90" />
			</node>
			<node id="wine_glass">
				<name>wine_glass</name>
				<interior color="e5f6f7" />
				<outline color="000080" />
				<font color="000000" name="Arial" size="8" />
				<position>1994 138 2066 186</position>
				<barchart width="128" height="90" />
			</node>
			<node id="cup">
				<name>cup</name>
				<interior color="e5f6f7" />
				<outline color="000080" />
				<font color="000000" name="Arial" size="8" />
				<position>785 324 857 372</position>
				<barchart width="128" height="90" />
			</node>
			<node id="fork">
				<name>fork</name>
				<interior color="e5f6f7" />
				<outline color="000080" />
				<font color="000000" name="Arial" size="8" />
				<position>971 262 1043 310</position>
				<barchart width="128" height="90" />
			</node>
			<node id="knife">
				<name>knife</name>
				<interior color="e5f6f7" />
				<outline color="000080" />
				<font color="000000" name="Arial" size="8" />
				<position>878 200 950 248</position>
				<barchart width="128" height="90" />
			</node>
			<node id="spoon">
				<name>spoon</name>
				<interior color="e5f6f7" />
				<outline color="000080" />
				<font color="000000" name="Arial" size="8" />
				<position>971 324 1043 372</position>
				<barchart width="128" height="90" />
			</node>
			<node id="bowl">
				<name>bowl</name>
				<interior color="e5f6f7" />
				<outline color="000080" />
				<font color="000000" name="Arial" size="8" />
				<position>878 262 950 310</position>
				<barchart width="128" height="90" />
			</node>
			<node id="banana">
				<name>banana</name>
				<interior color="e5f6f7" />
				<outline color="000080" />
				<font color="000000" name="Arial" size="8" />
				<position>1994 200 2066 248</position>
				<barchart width="128" height="90" />
			</node>
			<node id="apple">
				<name>apple</name>
				<interior color="e5f6f7" />
				<outline color="000080" />
				<font color="000000" name="Arial" size="8" />
				<position>2087 138 2159 186</position>
				<barchart width="128" height="90" />
			</node>
			<node id="sandwich">
				<name>sandwich</name>
				<interior color="e5f6f7" />
				<outline color="000080" />
				<font color="000000" name="Arial" size="8" />
				<position>692 386 764 434</position>
				<barchart width="128" height="90" />
			</node>
			<node id="orange">
				<name>orange</name>
				<interior color="e5f6f7" />
				<outline color="000080" />
				<font color="000000" name="Arial" size="8" />
				<position>2087 200 2159 248</position>
				<barchart width="128" height="90" />
			</node>
			<node id="broccoli">
				<name>broccoli</name>
				<interior color="e5f6f7" />
				<outline color="000080" />
				<font color="000000" name="Arial" size="8" />
				<position>1343 200 1415 248</position>
				<barchart width="128" height="90" />
			</node>
			<node id="carrot">
				<name>carrot</name>
				<interior color="e5f6f7" />
				<outline color="000080" />
				<font color="000000" name="Arial" size="8" />
				<position>1901 200 1973 248</position>
				<barchart width="128" height="90" />
			</node>
			<node id="hot_dog">
				<name>hot_dog</name>
				<interior color="e5f6f7" />
				<outline color="000080" />
				<font color="000000" name="Arial" size="8" />
				<position>971 386 1043 434</position>
				<barchart width="128" height="90" />
			</node>
			<node id="pizza">
				<name>pizza</name>
				<interior color="e5f6f7" />
				<outline color="000080" />
				<font color="000000" name="Arial" size="8" />
				<position>971 448 1043 496</position>
				<barchart width="128" height="90" />
			</node>
			<node id="donut">
				<name>donut</name>
				<interior color="e5f6f7" />
				<outline color="000080" />
				<font color="000000" name="Arial" size="8" />
				<position>1715 200 1787 248</position>
				<barchart width="128" height="90" />
			</node>
			<node id="cake">
				<name>cake</name>
				<interior color="e5f6f7" />
				<outline color="000080" />
				<font color="000000" name="Arial" size="8" />
				<position>785 386 857 434</position>
				<barchart width="128" height="90" />
			</node>
			<node id="chair">
				<name>chair</name>
				<interior color="e5f6f7" />
				<outline color="000080" />
				<font color="000000" name="Arial" size="8" />
				<position>320 262 392 310</position>
				<barchart width="128" height="90" />
			</node>
			<node id="couch">
				<name>couch</name>
				<interior color="e5f6f7" />
				<outline color="000080" />
				<font color="000000" name="Arial" size="8" />
				<position>785 448 857 496</position>
				<barchart width="128" height="90" />
			</node>
			<node id="potted_plant">
				<name>potted_plant</name>
				<interior color="e5f6f7" />
				<outline color="000080" />
				<font color="000000" name="Arial" size="8" />
				<position>1250 200 1322 248</position>
				<barchart width="128" height="90" />
			</node>
			<node id="bed">
				<name>bed</name>
				<interior color="e5f6f7" />
				<outline color="000080" />
				<font color="000000" name="Arial" size="8" />
				<position>692 448 764 496</position>
				<barchart width="128" height="90" />
			</node>
			<node id="dining_table">
				<name>dining_table</name>
				<interior color="e5f6f7" />
				<outline color="000080" />
				<font color="000000" name="Arial" size="8" />
				<position>1064 324 1136 372</position>
				<barchart width="128" height="90" />
			</node>
			<node id="toilet">
				<name>toilet</name>
				<interior color="e5f6f7" />
				<outline color="000080" />
				<font color="000000" name="Arial" size="8" />
				<position>413 200 485 248</position>
				<barchart width="128" height="90" />
			</node>
			<node id="tv">
				<name>tv</name>
				<interior color="e5f6f7" />
				<outline color="000080" />
				<font color="000000" name="Arial" size="8" />
				<position>506 200 578 248</position>
				<barchart width="128" height="90" />
			</node>
			<node id="laptop">
				<name>laptop</name>
				<interior color="e5f6f7" />
				<outline color="000080" />
				<font color="000000" name="Arial" size="8" />
				<position>785 510 831 538</position>
				<barchart width="128" height="90" />
			</node>
			<node id="mouse">
				<name>mouse</name>
				<interior color="e5f6f7" />
				<outline color="000080" />
				<font color="000000" name="Arial" size="8" />
				<position>599 324 671 372</position>
				<barchart width="128" height="90" />
			</node>
			<node id="remote">
				<name>remote</name>
				<interior color="e5f6f7" />
				<outline color="000080" />
				<font color="000000" name="Arial" size="8" />
				<position>599 386 671 434</position>
				<barchart width="128" height="90" />
			</node>
			<node id="keyboard">
				<name>keyboard</name>
				<interior color="e5f6f7" />
				<outline color="000080" />
				<font color="000000" name="Arial" size="8" />
				<position>860 322 932 370</position>
				<barchart width="128" height="90" />
			</node>
			<node id="cell_phone">
				<name>cell_phone</name>
				<interior color="e5f6f7" />
				<outline color="000080" />
				<font color="000000" name="Arial" size="8" />
				<position>833 515 899 556</position>
				<barchart width="128" height="90" />
			</node>
			<node id="microwave">
				<name>microwave</name>
				<interior color="e5f6f7" />
				<outline color="000080" />
				<font color="000000" name="Arial" size="8" />
				<position>971 510 1039 552</position>
				<barchart width="128" height="90" />
			</node>
			<node id="oven">
				<name>oven</name>
				<interior color="e5f6f7" />
				<outline color="000080" />
				<font color="000000" name="Arial" size="8" />
				<position>878 324 950 372</position>
				<barchart width="128" height="90" />
			</node>
			<node id="toaster">
				<name>toaster</name>
				<interior color="e5f6f7" />
				<outline color="000080" />
				<font color="000000" name="Arial" size="8" />
				<position>878 386 950 434</position>
				<barchart width="128" height="90" />
			</node>
			<node id="sink">
				<name>sink</name>
				<interior color="e5f6f7" />
				<outline color="000080" />
				<font color="000000" name="Arial" size="8" />
				<position>542 567 614 615</position>
				<barchart active="true" width="286" height="148" />
			</node>
			<node id="refrigerator">
				<name>refrigerator</name>
				<interior color="e5f6f7" />
				<outline color="000080" />
				<font color="000000" name="Arial" size="8" />
				<position>249 562 321 610</position>
				<barchart active="true" width="190" height="121" />
			</node>
			<node id="book">
				<name>book</name>
				<interior color="e5f6f7" />
				<outline color="000080" />
				<font color="000000" name="Arial" size="8" />
				<position>878 448 950 496</position>
				<barchart width="128" height="90" />
			</node>
			<node id="clock">
				<name>clock</name>
				<interior color="e5f6f7" />
				<outline color="000080" />
				<font color="000000" name="Arial" size="8" />
				<position>1114 678 1157 704</position>
				<barchart width="128" height="90" />
			</node>
			<node id="vase">
				<name>vase</name>
				<interior color="e5f6f7" />
				<outline color="000080" />
				<font color="000000" name="Arial" size="8" />
				<position>2087 262 2159 310</position>
				<barchart width="128" height="90" />
			</node>
			<node id="scissors">
				<name>scissors</name>
				<interior color="e5f6f7" />
				<outline color="000080" />
				<font color="000000" name="Arial" size="8" />
				<position>1320 622 1392 670</position>
				<barchart width="128" height="90" />
			</node>
			<node id="teddy_bear">
				<name>teddy_bear</name>
				<interior color="e5f6f7" />
				<outline color="000080" />
				<font color="000000" name="Arial" size="8" />
				<position>1351 396 1423 444</position>
				<barchart active="true" width="255" height="143" />
			</node>
			<node id="hair_dryer">
				<name>hair_dryer</name>
				<interior color="e5f6f7" />
				<outline color="000080" />
				<font color="000000" name="Arial" size="8" />
				<position>1157 262 1229 310</position>
				<barchart width="128" height="90" />
			</node>
			<node id="toothbrush">
				<name>toothbrush</name>
				<interior color="e5f6f7" />
				<outline color="000080" />
				<font color="000000" name="Arial" size="8" />
				<position>878 510 944 551</position>
				<barchart width="128" height="90" />
			</node>
			<textbox>
				<caption>Input file: semantic_consistency_matrix_coco_discretised.csv\nData rows: 91\nElapsed time: 379.469s\n\nLearning algorithm: Bayesian Search\nAlgorithm parameters:\nIterations: 20\nMax parent count: 8\nSample size: 50\nLink probability: 0.1\nPrior link probability: 0.001\nSeed: 0\nMax search time: 0\nNo background knowledge\n\nBest score in iteration 0: -7448\nEM Log Likelihood: -4632.54</caption>
				<font color="000000" name="Arial" size="8" />
				<position>41 702 340 940</position>
			</textbox>
		</genie>
	</extensions>
</smile>
